[array([[-4.12550113e-03, -1.18593755e-02,  4.02787139e-02, ...,
         2.56059650e-02,  6.41450350e-02, -4.76859343e-02],
       [-5.58377797e-59, -3.53660061e-60, -9.34394582e-60, ...,
        -2.62849633e-58, -1.55041204e-59, -1.44719522e-59],
       [ 8.20859809e-59,  2.07057295e-58, -4.08991807e-59, ...,
         9.37059998e-58, -7.75103488e-59,  9.13932423e-58],
       ...,
       [-1.07556872e-01, -3.27081414e-02, -9.44021345e-02, ...,
        -5.48903519e-02, -4.87398159e-02,  5.23499502e-02],
       [ 2.70112675e-57,  8.99030807e-58,  2.91433258e-58, ...,
        -3.95267812e-58,  6.99010095e-58, -2.94071401e-57],
       [ 6.62500767e-02,  5.05169689e-02,  4.82490738e-02, ...,
         2.74789645e-02,  3.62919859e-02, -9.45063297e-03]]), array([[ 4.28017006e-01, -1.15694379e-33,  9.62106134e-02,
        -3.80306095e-01, -1.88691877e-11,  1.79075768e-01,
         3.66570348e-01,  9.45562933e-01,  3.69390082e-01,
         1.45356481e-01, -2.84348414e-01, -7.54576434e-01,
         3.26688551e-01,  1.18644426e-01, -5.34825704e-01,
        -6.52393313e-02,  4.87536844e-01, -8.68341551e-01,
        -6.11869848e-01,  8.79040118e-01],
       [ 3.22381596e-01, -3.49859588e-57, -8.61351867e-01,
        -6.71671001e-01,  2.77777660e-14, -1.67943781e-01,
        -8.30829672e-02,  5.40985497e-01,  1.75704457e-01,
         6.84607116e-01,  2.00193297e-01, -5.21888712e-01,
        -3.30679853e-02,  6.18757696e-01, -7.43215877e-01,
         3.58270205e-01,  1.82817792e-01,  1.19209667e-01,
        -5.70737588e-01,  1.23552036e-01],
       [ 2.58486461e-01, -8.34309115e-38,  2.22207982e-01,
         3.58246120e-01, -4.06384734e-28,  7.01928431e-01,
         8.11543083e-01,  6.42765239e-01,  1.83223435e-01,
         5.99029876e-01,  4.16592408e-01, -1.07804092e-01,
        -2.90958318e-01,  1.48668672e-01,  6.73675403e-02,
        -7.29483090e-02,  1.09344140e-01,  1.49250375e-01,
        -1.22559296e-01,  4.66686519e-01],
       [-2.16043494e-01, -6.34079913e-20,  3.32385239e-01,
         8.23015166e-01,  4.45643377e-37,  4.05066991e-01,
        -5.37529650e-01,  9.22825868e-02, -9.84314950e-02,
        -4.87482023e-01,  1.27714849e-01,  6.25181458e-01,
        -3.72398314e-01, -5.28680435e-01,  2.71023635e-01,
        -1.98507980e-01, -2.49087238e-01,  2.33390160e-01,
         5.54192733e-01, -6.01634741e-01],
       [ 4.60820634e-01, -3.26949100e-15, -2.58265851e-01,
        -8.59923343e-01, -2.52788270e-17, -5.13446321e-01,
        -1.46391935e-01,  8.02013722e-01,  5.67328875e-01,
        -2.06649242e-01,  9.37922864e-02,  5.93015865e-01,
        -2.52937897e-01, -8.28942605e-01,  7.21477713e-01,
         1.58485666e-01,  2.81902282e-01, -2.95239512e-01,
         4.72464787e-01,  6.69738624e-01],
       [ 7.12124399e-01,  4.94966320e-22, -2.67391949e-01,
         2.09018947e-01, -3.02197116e-44,  3.75857552e-01,
        -3.38782510e-01,  2.48557113e-01,  7.48789095e-01,
         6.96456046e-01,  6.85044200e-01, -4.95471206e-01,
        -2.38893995e-01, -2.51229215e-01, -6.39777306e-01,
        -6.17843482e-01, -5.92023553e-01,  1.99717251e-01,
         6.18299076e-01, -8.53946783e-01],
       [ 4.97904137e-01,  1.15077940e-37, -2.39604360e-01,
        -7.24367413e-02,  9.53318915e-24,  3.12347892e-01,
        -3.25377835e-01,  1.06055055e-01,  5.59757220e-01,
         7.76632372e-01,  9.66115447e-01, -4.00927840e-01,
         3.21839625e-01, -1.70912490e-01, -8.29078491e-01,
        -5.94530752e-01, -7.49707219e-01, -4.12529190e-01,
         7.50413901e-01, -4.08364871e-01],
       [-2.52627110e-01, -6.03219321e-11, -2.77722129e-01,
        -3.14855883e-01, -3.59566656e-23,  2.80853682e-01,
        -2.52518996e-01, -8.69975529e-01,  1.66476583e-01,
         5.54641519e-01,  3.36642352e-01, -2.61750010e-02,
         9.91425489e-02,  2.91835500e-01,  2.64681377e-01,
         8.37464404e-01,  1.00531432e-01,  7.94208560e-01,
        -3.15465326e-01,  3.65996630e-01],
       [ 5.04812987e-01,  5.47625858e-22,  9.51383345e-03,
        -6.94565812e-01, -5.62903873e-13, -5.22425880e-01,
        -8.66120807e-02,  2.64559465e-01,  3.14038270e-01,
        -2.03779372e-01,  3.76064476e-01,  5.96975404e-01,
        -2.88291548e-01, -4.44497687e-01,  4.71963958e-01,
         6.15785440e-01, -3.98876658e-01,  3.99168200e-01,
         6.36171425e-01,  2.02707942e-01],
       [-3.76435271e-01,  6.65066698e-15,  9.36157530e-01,
         4.72369640e-01, -1.38173570e-42,  4.71168380e-01,
         7.37385327e-01,  3.00300010e-01, -8.72830516e-01,
         2.54733070e-01, -9.09840778e-01, -1.76519333e-02,
         3.00858086e-01,  2.48161844e-03,  3.54872905e-01,
        -4.76461747e-01,  8.13552427e-01, -5.03787319e-01,
        -6.77148318e-01,  4.50728271e-01],
       [ 6.90777565e-01, -8.28667140e-25,  3.69240255e-01,
         5.22630773e-01, -9.47269896e-12,  3.74647388e-01,
        -4.97675281e-02,  2.93009200e-01,  4.66280001e-01,
         1.46926156e-01,  1.31076284e-01, -6.77001824e-01,
         4.60535961e-03, -1.80537846e-01, -6.15431765e-01,
        -3.59138860e-01, -3.87428276e-01, -3.53386925e-01,
         6.33793986e-01, -7.38933309e-01],
       [-5.46544645e-01,  1.94022457e-16,  2.17096732e-01,
         6.28807626e-01, -6.51561363e-16,  2.80159625e-01,
         5.95856899e-01,  1.15646758e-02, -2.56703390e-01,
         4.06708245e-02, -8.08462528e-05,  2.79175506e-01,
         1.44930496e-01,  8.05113470e-01,  2.59107655e-01,
         3.75274191e-01,  3.70464994e-01,  7.44884418e-01,
         3.27004446e-01,  1.80108365e-01],
       [-3.35430598e-01, -9.01271404e-38,  9.36790719e-01,
         7.12673205e-01, -1.83495584e-11,  8.80682556e-01,
        -7.41000657e-02, -4.13228119e-01,  9.56005748e-02,
        -5.37235095e-01,  3.14143014e-01,  4.10711195e-01,
        -1.50243087e-01, -2.45277765e-02,  1.21932526e-01,
        -2.91398501e-01,  6.92589141e-02,  1.00126417e-01,
         3.81471568e-01, -4.77421191e-01],
       [-3.02995329e-01, -1.02380042e-46, -1.36059963e-01,
         6.00407537e-01,  2.32747520e-56,  2.22713023e-01,
         1.09119112e-01, -5.23271987e-01, -1.98514353e-01,
        -3.27835255e-01,  1.64531581e-02,  2.25874416e-01,
        -7.30084105e-02,  4.49562924e-01,  5.96614924e-02,
         4.07721398e-01, -1.65279731e-01,  7.30065599e-01,
         5.69631591e-01,  3.80482077e-01],
       [ 1.70824253e-01,  5.19794310e-16,  1.57430469e-01,
        -2.89326258e-01,  4.58664702e-47, -3.62706711e-01,
         6.88774524e-01,  6.54499988e-01, -4.75938372e-01,
         1.65485531e-01, -5.32477146e-01, -5.36514509e-01,
        -2.81276190e-01,  1.32787019e-01, -1.24479790e-01,
         4.97102300e-01,  8.85387114e-01, -2.78727787e-01,
        -6.10928482e-01,  8.99858505e-01],
       [ 5.53686109e-01, -2.23883483e-11,  7.54363662e-01,
         5.33258919e-01,  5.10287817e-13,  7.07572320e-01,
         3.46900546e-01,  5.82474338e-01,  6.73907096e-01,
         3.07402564e-01,  6.50448043e-01,  2.46570838e-01,
        -1.45777267e-01,  1.07804748e-01,  4.23159949e-02,
        -9.19868750e-01,  3.22247911e-01, -5.78297086e-01,
         7.38629857e-01, -2.71294983e-01],
       [-7.67256595e-01, -6.47316694e-21,  2.16423101e-01,
         5.20739671e-01, -2.30713822e-11,  3.00733525e-01,
         5.87819890e-01, -5.20257277e-01, -6.80770732e-02,
         4.49976833e-01, -3.85464888e-01,  9.66603630e-02,
         2.93849037e-02,  5.40062437e-01,  3.06238406e-01,
         2.32437815e-01,  1.85344924e-01,  3.07756564e-01,
        -6.75720870e-01,  3.61545725e-01],
       [ 2.64056430e-02, -1.52992788e-39,  2.66105821e-01,
         4.52760144e-01, -4.18237372e-49,  7.55895547e-01,
         5.70188025e-01, -4.99796982e-01,  1.78425004e-01,
         6.10429519e-01,  2.03792901e-01, -2.93061394e-01,
         9.27865946e-02,  6.88759891e-01, -6.30988066e-01,
        -1.35340556e-01,  7.44448047e-02,  3.16531175e-01,
        -2.02752224e-02,  2.99301146e-01],
       [-1.70503136e-01,  6.20582188e-14,  1.69395936e-01,
         6.68750492e-01, -1.47282926e-38,  5.95062106e-01,
         7.29153161e-01, -5.38804646e-01,  1.59461716e-01,
         7.02246048e-01,  1.61806348e-01, -7.28707392e-01,
         1.24630073e-01,  1.92783994e-01, -7.29006646e-01,
         1.46371791e-01, -8.18179872e-02,  6.95424753e-01,
         5.71592119e-03, -9.18476161e-02],
       [ 6.95748987e-02,  4.25592163e-50,  2.13872793e-01,
        -5.46575628e-01,  7.65418057e-25, -6.26824241e-01,
        -4.01568361e-01,  6.63771449e-01,  2.60374673e-01,
        -5.67950777e-01, -1.07198580e-01,  6.78536914e-01,
         3.03529221e-01, -6.68164649e-01,  5.60216540e-01,
         4.80158028e-01,  2.19276663e-01, -1.66968329e-01,
         6.81590077e-01,  5.90768115e-01]]), array([[-1.79943784e-01, -9.89401353e-01,  9.74777066e-01,
        -8.64003269e-01, -9.32300167e-02],
       [-6.14620399e-23, -1.21892369e-18, -1.24824829e-24,
         6.95905974e-17, -3.52186006e-28],
       [-1.15061376e+00,  1.05292948e+00, -6.63849222e-01,
         4.00123784e-01, -5.32763717e-01],
       [-8.06922719e-01,  5.92840230e-02, -8.41301108e-01,
         5.15066122e-01, -5.25407376e-01],
       [-1.42985339e-11,  3.33311508e-10,  1.65074625e-16,
        -5.77301753e-34,  2.41012720e-09],
       [-8.92535989e-01,  1.12126818e-03, -1.08111870e-01,
         6.53428184e-01,  3.79715409e-02],
       [-3.04999951e-01,  3.69120085e-01, -2.95640709e-02,
         3.66779474e-01,  8.06935218e-01],
       [-5.31746891e-01,  5.82343698e-01,  6.68377484e-01,
        -1.04910708e+00, -3.01047430e-01],
       [-7.36347940e-02, -7.35009790e-01,  7.56468478e-01,
         3.41356301e-02, -8.99442211e-01],
       [-5.36351750e-01, -5.60314115e-01,  3.73163131e-01,
         2.00607234e-01,  7.74092067e-01],
       [-1.24032278e-01, -1.16487442e+00,  8.22040793e-01,
         4.02706487e-01, -1.09352154e+00],
       [ 5.60036133e-01,  4.47519137e-01, -5.09059844e-01,
        -2.58710471e-01, -7.89631165e-01],
       [ 3.90992007e-01, -1.54198297e-01,  3.10052043e-01,
         1.28846728e-01, -3.46571709e-01],
       [-5.90739810e-01, -9.47614215e-01, -8.06213680e-01,
         1.88837420e-01,  5.89527216e-01],
       [ 6.82985980e-01,  6.10697311e-01, -4.92787273e-01,
        -3.79991733e-01, -4.30248051e-01],
       [ 7.62947120e-01, -9.74169295e-01, -6.88687773e-01,
        -6.02834830e-01,  4.73243678e-01],
       [-5.14756940e-01,  8.04469533e-01, -7.34594120e-01,
        -7.46319361e-01,  9.32908091e-01],
       [ 6.86478149e-01, -5.98090041e-01, -4.44385930e-01,
         6.38235578e-01,  3.04512866e-01],
       [ 5.51802342e-01,  9.20732560e-02,  4.87342824e-01,
         4.28896581e-01, -6.07151013e-01],
       [ 4.57228499e-01,  2.17897416e-01, -3.45621632e-01,
        -1.00666073e+00,  5.39516179e-01]])]